<?xml version="1.0"?>
<opencv_storage>
<cascade>
  <stageType>BOOST</stageType>
  <featureType>HAAR</featureType>
  <height>24</height>
  <width>24</width>
  <stageParams>
    <boostType>GAB</boostType>
    <minHitRate>9.9500000476837158e-01</minHitRate>
    <maxFalseAlarm>5.0000000000000000e-01</maxFalseAlarm>
    <weightTrimRate>9.4999999999999996e-01</weightTrimRate>
    <maxDepth>1</maxDepth>
    <maxWeakCount>100</maxWeakCount></stageParams>
  <featureParams>
    <maxCatCount>0</maxCatCount>
    <featSize>1</featSize>
    <mode>BASIC</mode></featureParams>
  <stageNum>15</stageNum>
  <stages>
    <!-- stage 0 -->
    <_>
      <maxWeakCount>1</maxWeakCount>
      <stageThreshold>1.</stageThreshold>
      <weakClassifiers>
        <_>
          <internalNodes>
            0 -1 21 1.8719014406087808e-05</internalNodes>
          <leafValues>
            -1. 1.</leafValues></_></weakClassifiers></_>
    <!-- stage 1 -->
    <_>
      <maxWeakCount>2</maxWeakCount>
      <stageThreshold>9.3844488263130188e-02</stageThreshold>
      <weakClassifiers>
        <_>
          <internalNodes>
            0 -1 2 3.0312482267618179e-02</internalNodes>
          <leafValues>
            -7.6923078298568726e-01 9.7959184646606445e-01</leafValues></_>
        <_>
          <internalNodes>
            0 -1 18 1.8002502620220184e-02</internalNodes>
          <leafValues>
            9.5696610212326050e-01 -8.8574737310409546e-01</leafValues></_></weakClassifiers></_>
    <!-- stage 2 -->
    <_>
      <maxWeakCount>2</maxWeakCount>
      <stageThreshold>1.0576243698596954e-01</stageThreshold>
      <weakClassifiers>
        <_>
          <internalNodes>
            0 -1 3 7.9440856352448463e-03</internalNodes>
          <leafValues>
            -7.5999999046325684e-01 9.5959597826004028e-01</leafValues></_>
        <_>
          <internalNodes>
            0 -1 14 3.6835148930549622e-02</internalNodes>
          <leafValues>
            -8.5383349657058716e-01 9.5685398578643799e-01</leafValues></_></weakClassifiers></_>
    <!-- stage 3 -->
    <_>
      <maxWeakCount>1</maxWeakCount>
      <stageThreshold>9.2307692766189575e-01</stageThreshold>
      <weakClassifiers>
        <_>
          <internalNodes>
            0 -1 23 -1.1326202191412449e-02</internalNodes>
          <leafValues>
            9.2307692766189575e-01 -1.</leafValues></_></weakClassifiers></_>
    <!-- stage 4 -->
    <_>
      <maxWeakCount>2</maxWeakCount>
      <stageThreshold>-2.8350422158837318e-02</stageThreshold>
      <weakClassifiers>
        <_>
          <internalNodes>
            0 -1 22 3.4944813698530197e-02</internalNodes>
          <leafValues>
            9.2233008146286011e-01 -9.0476191043853760e-01</leafValues></_>
        <_>
          <internalNodes>
            0 -1 4 -2.1407883614301682e-02</internalNodes>
          <leafValues>
            -9.5068049430847168e-01 8.8929980993270874e-01</leafValues></_></weakClassifiers></_>
    <!-- stage 5 -->
    <_>
      <maxWeakCount>2</maxWeakCount>
      <stageThreshold>1.7391304671764374e-01</stageThreshold>
      <weakClassifiers>
        <_>
          <internalNodes>
            0 -1 13 2.6338417083024979e-02</internalNodes>
          <leafValues>
            9.4059407711029053e-01 -8.2608693838119507e-01</leafValues></_>
        <_>
          <internalNodes>
            0 -1 9 -1.0378203587606549e-03</internalNodes>
          <leafValues>
            -6.2428349256515503e-01 1.</leafValues></_></weakClassifiers></_>
    <!-- stage 6 -->
    <_>
      <maxWeakCount>2</maxWeakCount>
      <stageThreshold>2.2684930264949799e-01</stageThreshold>
      <weakClassifiers>
        <_>
          <internalNodes>
            0 -1 19 2.2619023919105530e-02</internalNodes>
          <leafValues>
            9.3999999761581421e-01 -7.5000000000000000e-01</leafValues></_>
        <_>
          <internalNodes>
            0 -1 9 -1.8891388317570090e-03</internalNodes>
          <leafValues>
            -6.2856698036193848e-01 9.7684931755065918e-01</leafValues></_></weakClassifiers></_>
    <!-- stage 7 -->
    <_>
      <maxWeakCount>2</maxWeakCount>
      <stageThreshold>-1.0010632686316967e-02</stageThreshold>
      <weakClassifiers>
        <_>
          <internalNodes>
            0 -1 16 5.1575116813182831e-02</internalNodes>
          <leafValues>
            9.3999999761581421e-01 -7.5000000000000000e-01</leafValues></_>
        <_>
          <internalNodes>
            0 -1 20 -1.6317002475261688e-02</internalNodes>
          <leafValues>
            8.9778512716293335e-01 -9.5001065731048584e-01</leafValues></_></weakClassifiers></_>
    <!-- stage 8 -->
    <_>
      <maxWeakCount>2</maxWeakCount>
      <stageThreshold>3.2788354158401489e-01</stageThreshold>
      <weakClassifiers>
        <_>
          <internalNodes>
            0 -1 17 -1.1579048077692278e-05</internalNodes>
          <leafValues>
            9.7916668653488159e-01 -6.4285713434219360e-01</leafValues></_>
        <_>
          <internalNodes>
            0 -1 0 -1.5256425831466913e-04</internalNodes>
          <leafValues>
            -6.5128314495086670e-01 9.7538137435913086e-01</leafValues></_></weakClassifiers></_>
    <!-- stage 9 -->
    <_>
      <maxWeakCount>2</maxWeakCount>
      <stageThreshold>1.1899036169052124e-01</stageThreshold>
      <weakClassifiers>
        <_>
          <internalNodes>
            0 -1 12 -4.4751134701073170e-03</internalNodes>
          <leafValues>
            9.5959597826004028e-01 -7.5999999046325684e-01</leafValues></_>
        <_>
          <internalNodes>
            0 -1 5 -6.2466402596328408e-05</internalNodes>
          <leafValues>
            -1. 8.7899035215377808e-01</leafValues></_></weakClassifiers></_>
    <!-- stage 10 -->
    <_>
      <maxWeakCount>2</maxWeakCount>
      <stageThreshold>7.9938337206840515e-02</stageThreshold>
      <weakClassifiers>
        <_>
          <internalNodes>
            0 -1 6 -1.1336361058056355e-02</internalNodes>
          <leafValues>
            -8.9999997615814209e-01 9.0384614467620850e-01</leafValues></_>
        <_>
          <internalNodes>
            0 -1 7 -2.9895056039094925e-02</internalNodes>
          <leafValues>
            9.7993832826614380e-01 -7.8002309799194336e-01</leafValues></_></weakClassifiers></_>
    <!-- stage 11 -->
    <_>
      <maxWeakCount>1</maxWeakCount>
      <stageThreshold>9.0476191043853760e-01</stageThreshold>
      <weakClassifiers>
        <_>
          <internalNodes>
            0 -1 15 2.2120315115898848e-03</internalNodes>
          <leafValues>
            9.0476191043853760e-01 -1.</leafValues></_></weakClassifiers></_>
    <!-- stage 12 -->
    <_>
      <maxWeakCount>1</maxWeakCount>
      <stageThreshold>9.0476191043853760e-01</stageThreshold>
      <weakClassifiers>
        <_>
          <internalNodes>
            0 -1 11 7.5645744800567627e-05</internalNodes>
          <leafValues>
            9.0476191043853760e-01 -1.</leafValues></_></weakClassifiers></_>
    <!-- stage 13 -->
    <_>
      <maxWeakCount>2</maxWeakCount>
      <stageThreshold>1.9488196074962616e-01</stageThreshold>
      <weakClassifiers>
        <_>
          <internalNodes>
            0 -1 1 -7.7104113996028900e-02</internalNodes>
          <leafValues>
            -6.1538463830947876e-01 9.3877553939819336e-01</leafValues></_>
        <_>
          <internalNodes>
            0 -1 10 7.4686366133391857e-04</internalNodes>
          <leafValues>
            8.1026655435562134e-01 -1.</leafValues></_></weakClassifiers></_>
    <!-- stage 14 -->
    <_>
      <maxWeakCount>2</maxWeakCount>
      <stageThreshold>1.3086065649986267e-01</stageThreshold>
      <weakClassifiers>
        <_>
          <internalNodes>
            0 -1 24 -3.3322334289550781e-02</internalNodes>
          <leafValues>
            -6.8000000715255737e-01 9.3939393758773804e-01</leafValues></_>
        <_>
          <internalNodes>
            0 -1 8 -3.4809260978363454e-04</internalNodes>
          <leafValues>
            -8.0853325128555298e-01 8.5037064552307129e-01</leafValues></_></weakClassifiers></_></stages>
  <features>
    <_>
      <rects>
        <_>
          0 0 1 3 -1.</_>
        <_>
          0 1 1 1 2.</_></rects>
      <tilted>0</tilted></_>
    <_>
      <rects>
        <_>
          0 0 2 24 -1.</_>
        <_>
          0 8 2 8 2.</_></rects>
      <tilted>0</tilted></_>
    <_>
      <rects>
        <_>
          0 0 22 10 -1.</_>
        <_>
          0 5 22 5 2.</_></rects>
      <tilted>0</tilted></_>
    <_>
      <rects>
        <_>
          0 1 8 18 -1.</_>
        <_>
          4 1 4 18 2.</_></rects>
      <tilted>0</tilted></_>
    <_>
      <rects>
        <_>
          0 2 14 8 -1.</_>
        <_>
          7 2 7 8 2.</_></rects>
      <tilted>0</tilted></_>
    <_>
      <rects>
        <_>
          0 3 4 14 -1.</_>
        <_>
          2 3 2 14 2.</_></rects>
      <tilted>0</tilted></_>
    <_>
      <rects>
        <_>
          0 3 14 6 -1.</_>
        <_>
          7 3 7 6 2.</_></rects>
      <tilted>0</tilted></_>
    <_>
      <rects>
        <_>
          0 16 24 8 -1.</_>
        <_>
          0 20 24 4 2.</_></rects>
      <tilted>0</tilted></_>
    <_>
      <rects>
        <_>
          0 19 8 4 -1.</_>
        <_>
          4 19 4 4 2.</_></rects>
      <tilted>0</tilted></_>
    <_>
      <rects>
        <_>
          0 23 3 1 -1.</_>
        <_>
          1 23 1 1 2.</_></rects>
      <tilted>0</tilted></_>
    <_>
      <rects>
        <_>
          1 17 12 4 -1.</_>
        <_>
          1 19 12 2 2.</_></rects>
      <tilted>0</tilted></_>
    <_>
      <rects>
        <_>
          1 20 20 4 -1.</_>
        <_>
          1 22 20 2 2.</_></rects>
      <tilted>0</tilted></_>
    <_>
      <rects>
        <_>
          2 14 21 10 -1.</_>
        <_>
          2 19 21 5 2.</_></rects>
      <tilted>0</tilted></_>
    <_>
      <rects>
        <_>
          3 10 17 14 -1.</_>
        <_>
          3 17 17 7 2.</_></rects>
      <tilted>0</tilted></_>
    <_>
      <rects>
        <_>
          4 0 18 8 -1.</_>
        <_>
          4 4 18 4 2.</_></rects>
      <tilted>0</tilted></_>
    <_>
      <rects>
        <_>
          5 6 3 18 -1.</_>
        <_>
          5 15 3 9 2.</_></rects>
      <tilted>0</tilted></_>
    <_>
      <rects>
        <_>
          6 3 18 18 -1.</_>
        <_>
          15 3 9 18 2.</_></rects>
      <tilted>0</tilted></_>
    <_>
      <rects>
        <_>
          6 5 6 6 -1.</_>
        <_>
          6 5 3 3 2.</_>
        <_>
          9 8 3 3 2.</_></rects>
      <tilted>0</tilted></_>
    <_>
      <rects>
        <_>
          6 7 18 3 -1.</_>
        <_>
          15 7 9 3 2.</_></rects>
      <tilted>0</tilted></_>
    <_>
      <rects>
        <_>
          6 9 18 3 -1.</_>
        <_>
          15 9 9 3 2.</_></rects>
      <tilted>0</tilted></_>
    <_>
      <rects>
        <_>
          7 10 6 2 -1.</_>
        <_>
          9 10 2 2 2.</_></rects>
      <tilted>0</tilted></_>
    <_>
      <rects>
        <_>
          9 8 10 4 -1.</_>
        <_>
          14 8 5 4 2.</_></rects>
      <tilted>0</tilted></_>
    <_>
      <rects>
        <_>
          10 3 14 17 -1.</_>
        <_>
          17 3 7 17 2.</_></rects>
      <tilted>0</tilted></_>
    <_>
      <rects>
        <_>
          10 12 9 1 -1.</_>
        <_>
          13 12 3 1 2.</_></rects>
      <tilted>0</tilted></_>
    <_>
      <rects>
        <_>
          23 1 1 21 -1.</_>
        <_>
          23 8 1 7 2.</_></rects>
      <tilted>0</tilted></_></features></cascade>
</opencv_storage>
