<?xml version="1.0"?>
<opencv_storage>
<stage21>
  <maxWeakCount>6</maxWeakCount>
  <stageThreshold>-3.9233524352312088e-02</stageThreshold>
  <weakClassifiers>
    <_>
      <internalNodes>
        0 -1 30939 -7.7918186783790588e-02</internalNodes>
      <leafValues>
        -1. 8.1818181276321411e-01</leafValues></_>
    <_>
      <internalNodes>
        0 -1 70643 4.9494945415062830e-05</internalNodes>
      <leafValues>
        7.9007643461227417e-01 -6.4584666490554810e-01</leafValues></_>
    <_>
      <internalNodes>
        0 -1 74651 -1.5970405656844378e-03</internalNodes>
      <leafValues>
        6.3941520452499390e-01 -7.7473998069763184e-01</leafValues></_>
    <_>
      <internalNodes>
        0 -1 14378 -1.6474824398756027e-02</internalNodes>
      <leafValues>
        7.8597605228424072e-01 -5.8550930023193359e-01</leafValues></_>
    <_>
      <internalNodes>
        0 -1 78636 8.3244463894516230e-05</internalNodes>
      <leafValues>
        4.7002905607223511e-01 -8.7967842817306519e-01</leafValues></_>
    <_>
      <internalNodes>
        0 -1 52041 -2.9302507755346596e-05</internalNodes>
      <leafValues>
        -6.6332352161407471e-01 6.7865151166915894e-01</leafValues></_></weakClassifiers></stage21>
</opencv_storage>
