<?xml version="1.0"?>
<opencv_storage>
<cascade>
  <stageType>BOOST</stageType>
  <featureType>HAAR</featureType>
  <height>24</height>
  <width>24</width>
  <stageParams>
    <boostType>GAB</boostType>
    <minHitRate>9.9500000476837158e-01</minHitRate>
    <maxFalseAlarm>5.0000000000000000e-01</maxFalseAlarm>
    <weightTrimRate>9.4999999999999996e-01</weightTrimRate>
    <maxDepth>1</maxDepth>
    <maxWeakCount>100</maxWeakCount></stageParams>
  <featureParams>
    <maxCatCount>0</maxCatCount>
    <featSize>1</featSize>
    <mode>BASIC</mode></featureParams>
  <stageNum>6</stageNum>
  <stages>
    <!-- stage 0 -->
    <_>
      <maxWeakCount>2</maxWeakCount>
      <stageThreshold>3.7736035883426666e-02</stageThreshold>
      <weakClassifiers>
        <_>
          <internalNodes>
            0 -1 2 2.3859642446041107e-02</internalNodes>
          <leafValues>
            -9.6078431606292725e-01 1.</leafValues></_>
        <_>
          <internalNodes>
            0 -1 4 4.0856921114027500e-03</internalNodes>
          <leafValues>
            -9.6226394176483154e-01 1.</leafValues></_></weakClassifiers></_>
    <!-- stage 1 -->
    <_>
      <maxWeakCount>2</maxWeakCount>
      <stageThreshold>7.6318881474435329e-04</stageThreshold>
      <weakClassifiers>
        <_>
          <internalNodes>
            0 -1 6 -5.9856753796339035e-03</internalNodes>
          <leafValues>
            1. -9.6078431606292725e-01</leafValues></_>
        <_>
          <internalNodes>
            0 -1 8 -3.0825260182609782e-05</internalNodes>
          <leafValues>
            9.6154749393463135e-01 -1.</leafValues></_></weakClassifiers></_>
    <!-- stage 2 -->
    <_>
      <maxWeakCount>2</maxWeakCount>
      <stageThreshold>1.9619928672909737e-02</stageThreshold>
      <weakClassifiers>
        <_>
          <internalNodes>
            0 -1 9 4.9935202114284039e-03</internalNodes>
          <leafValues>
            1. -9.6078431606292725e-01</leafValues></_>
        <_>
          <internalNodes>
            0 -1 7 -5.8107804507017136e-03</internalNodes>
          <leafValues>
            9.8040425777435303e-01 -9.6150869131088257e-01</leafValues></_></weakClassifiers></_>
    <!-- stage 3 -->
    <_>
      <maxWeakCount>2</maxWeakCount>
      <stageThreshold>1.9802819937467575e-02</stageThreshold>
      <weakClassifiers>
        <_>
          <internalNodes>
            0 -1 3 -2.3441095836460590e-03</internalNodes>
          <leafValues>
            1. -9.6078431606292725e-01</leafValues></_>
        <_>
          <internalNodes>
            0 -1 5 1.2464345491025597e-04</internalNodes>
          <leafValues>
            -1. 9.8058712482452393e-01</leafValues></_></weakClassifiers></_>
    <!-- stage 4 -->
    <_>
      <maxWeakCount>1</maxWeakCount>
      <stageThreshold>1.</stageThreshold>
      <weakClassifiers>
        <_>
          <internalNodes>
            0 -1 1 4.3463311158120632e-03</internalNodes>
          <leafValues>
            -1. 1.</leafValues></_></weakClassifiers></_>
    <!-- stage 5 -->
    <_>
      <maxWeakCount>1</maxWeakCount>
      <stageThreshold>1.</stageThreshold>
      <weakClassifiers>
        <_>
          <internalNodes>
            0 -1 0 3.2748341560363770e-02</internalNodes>
          <leafValues>
            1. -1.</leafValues></_></weakClassifiers></_></stages>
  <features>
    <_>
      <rects>
        <_>
          0 0 12 24 -1.</_>
        <_>
          0 0 6 12 2.</_>
        <_>
          6 12 6 12 2.</_></rects>
      <tilted>0</tilted></_>
    <_>
      <rects>
        <_>
          0 2 6 22 -1.</_>
        <_>
          0 13 6 11 2.</_></rects>
      <tilted>0</tilted></_>
    <_>
      <rects>
        <_>
          0 11 16 4 -1.</_>
        <_>
          8 11 8 4 2.</_></rects>
      <tilted>0</tilted></_>
    <_>
      <rects>
        <_>
          0 18 12 6 -1.</_>
        <_>
          6 18 6 6 2.</_></rects>
      <tilted>0</tilted></_>
    <_>
      <rects>
        <_>
          3 4 9 6 -1.</_>
        <_>
          3 7 9 3 2.</_></rects>
      <tilted>0</tilted></_>
    <_>
      <rects>
        <_>
          5 12 12 9 -1.</_>
        <_>
          11 12 6 9 2.</_></rects>
      <tilted>0</tilted></_>
    <_>
      <rects>
        <_>
          6 7 18 8 -1.</_>
        <_>
          15 7 9 8 2.</_></rects>
      <tilted>0</tilted></_>
    <_>
      <rects>
        <_>
          8 7 1 16 -1.</_>
        <_>
          8 15 1 8 2.</_></rects>
      <tilted>0</tilted></_>
    <_>
      <rects>
        <_>
          10 2 8 11 -1.</_>
        <_>
          14 2 4 11 2.</_></rects>
      <tilted>0</tilted></_>
    <_>
      <rects>
        <_>
          12 0 6 24 -1.</_>
        <_>
          12 12 6 12 2.</_></rects>
      <tilted>0</tilted></_></features></cascade>
</opencv_storage>
