<?xml version="1.0"?>
<opencv_storage>
<cascade>
  <stageType>BOOST</stageType>
  <featureType>HAAR</featureType>
  <height>24</height>
  <width>24</width>
  <stageParams>
    <boostType>GAB</boostType>
    <minHitRate>9.7000002861022949e-01</minHitRate>
    <maxFalseAlarm>8.0000001192092896e-01</maxFalseAlarm>
    <weightTrimRate>9.4999999999999996e-01</weightTrimRate>
    <maxDepth>1</maxDepth>
    <maxWeakCount>100</maxWeakCount></stageParams>
  <featureParams>
    <maxCatCount>0</maxCatCount>
    <featSize>1</featSize>
    <mode>BASIC</mode></featureParams>
  <stageNum>24</stageNum>
  <stages>
    <!-- stage 0 -->
    <_>
      <maxWeakCount>1</maxWeakCount>
      <stageThreshold>8.5046726465225220e-01</stageThreshold>
      <weakClassifiers>
        <_>
          <internalNodes>
            0 -1 29 -4.0447555482387543e-02</internalNodes>
          <leafValues>
            8.5046726465225220e-01 -9.6825397014617920e-01</leafValues></_></weakClassifiers></_>
    <!-- stage 1 -->
    <_>
      <maxWeakCount>1</maxWeakCount>
      <stageThreshold>7.6576578617095947e-01</stageThreshold>
      <weakClassifiers>
        <_>
          <internalNodes>
            0 -1 36 -2.6878243684768677e-01</internalNodes>
          <leafValues>
            -9.3220341205596924e-01 7.6576578617095947e-01</leafValues></_></weakClassifiers></_>
    <!-- stage 2 -->
    <_>
      <maxWeakCount>2</maxWeakCount>
      <stageThreshold>6.6462950780987740e-03</stageThreshold>
      <weakClassifiers>
        <_>
          <internalNodes>
            0 -1 2 7.0875868201255798e-02</internalNodes>
          <leafValues>
            -7.6712328195571899e-01 8.8659793138504028e-01</leafValues></_>
        <_>
          <internalNodes>
            0 -1 39 -1.7656441777944565e-02</internalNodes>
          <leafValues>
            7.7376955747604370e-01 -7.9397433996200562e-01</leafValues></_></weakClassifiers></_>
    <!-- stage 3 -->
    <_>
      <maxWeakCount>2</maxWeakCount>
      <stageThreshold>6.5226756036281586e-02</stageThreshold>
      <weakClassifiers>
        <_>
          <internalNodes>
            0 -1 27 6.3149139285087585e-02</internalNodes>
          <leafValues>
            -6.8055558204650879e-01 8.0612242221832275e-01</leafValues></_>
        <_>
          <internalNodes>
            0 -1 11 -4.4350221753120422e-02</internalNodes>
          <leafValues>
            7.4578231573104858e-01 -6.9632959365844727e-01</leafValues></_></weakClassifiers></_>
    <!-- stage 4 -->
    <_>
      <maxWeakCount>2</maxWeakCount>
      <stageThreshold>1.0302138328552246e-01</stageThreshold>
      <weakClassifiers>
        <_>
          <internalNodes>
            0 -1 0 3.1889986246824265e-02</internalNodes>
          <leafValues>
            -5.4929578304290771e-01 6.9696968793869019e-01</leafValues></_>
        <_>
          <internalNodes>
            0 -1 22 -1.1337339133024216e-01</internalNodes>
          <leafValues>
            6.8270289897918701e-01 -5.9394830465316772e-01</leafValues></_></weakClassifiers></_>
    <!-- stage 5 -->
    <_>
      <maxWeakCount>2</maxWeakCount>
      <stageThreshold>-3.7819895148277283e-01</stageThreshold>
      <weakClassifiers>
        <_>
          <internalNodes>
            0 -1 34 -3.1180970370769501e-02</internalNodes>
          <leafValues>
            6.2553191184997559e-01 -8.2857143878936768e-01</leafValues></_>
        <_>
          <internalNodes>
            0 -1 8 6.5102905035018921e-02</internalNodes>
          <leafValues>
            -8.4053421020507813e-01 4.5037248730659485e-01</leafValues></_></weakClassifiers></_>
    <!-- stage 6 -->
    <_>
      <maxWeakCount>2</maxWeakCount>
      <stageThreshold>-3.1866461038589478e-01</stageThreshold>
      <weakClassifiers>
        <_>
          <internalNodes>
            0 -1 40 -1.5470510348677635e-02</internalNodes>
          <leafValues>
            6.6071426868438721e-01 -7.5862067937850952e-01</leafValues></_>
        <_>
          <internalNodes>
            0 -1 42 2.8573928400874138e-02</internalNodes>
          <leafValues>
            -7.0125353336334229e-01 4.3995609879493713e-01</leafValues></_></weakClassifiers></_>
    <!-- stage 7 -->
    <_>
      <maxWeakCount>2</maxWeakCount>
      <stageThreshold>-3.1706050038337708e-01</stageThreshold>
      <weakClassifiers>
        <_>
          <internalNodes>
            0 -1 17 1.3086020946502686e-01</internalNodes>
          <leafValues>
            -6.8852460384368896e-01 6.6055047512054443e-01</leafValues></_>
        <_>
          <internalNodes>
            0 -1 37 -1.3833503238856792e-02</internalNodes>
          <leafValues>
            3.7146410346031189e-01 -8.9435267448425293e-01</leafValues></_></weakClassifiers></_>
    <!-- stage 8 -->
    <_>
      <maxWeakCount>2</maxWeakCount>
      <stageThreshold>-4.4507414102554321e-02</stageThreshold>
      <weakClassifiers>
        <_>
          <internalNodes>
            0 -1 4 6.4904987812042236e-02</internalNodes>
          <leafValues>
            -6.7924529314041138e-01 5.6410259008407593e-01</leafValues></_>
        <_>
          <internalNodes>
            0 -1 38 -8.4901839494705200e-02</internalNodes>
          <leafValues>
            6.3473784923553467e-01 -4.6190926432609558e-01</leafValues></_></weakClassifiers></_>
    <!-- stage 9 -->
    <_>
      <maxWeakCount>2</maxWeakCount>
      <stageThreshold>3.0574193224310875e-02</stageThreshold>
      <weakClassifiers>
        <_>
          <internalNodes>
            0 -1 21 -2.5044867396354675e-01</internalNodes>
          <leafValues>
            6.7010307312011719e-01 -4.7945204377174377e-01</leafValues></_>
        <_>
          <internalNodes>
            0 -1 18 1.7651177942752838e-01</internalNodes>
          <leafValues>
            -6.2839907407760620e-01 5.1002627611160278e-01</leafValues></_></weakClassifiers></_>
    <!-- stage 10 -->
    <_>
      <maxWeakCount>2</maxWeakCount>
      <stageThreshold>3.0473057180643082e-02</stageThreshold>
      <weakClassifiers>
        <_>
          <internalNodes>
            0 -1 31 -7.1161934174597263e-03</internalNodes>
          <leafValues>
            5.1612901687622070e-01 -7.3913043737411499e-01</leafValues></_>
        <_>
          <internalNodes>
            0 -1 5 2.1886591613292694e-01</internalNodes>
          <leafValues>
            -4.2821556329727173e-01 7.6960349082946777e-01</leafValues></_></weakClassifiers></_>
    <!-- stage 11 -->
    <_>
      <maxWeakCount>2</maxWeakCount>
      <stageThreshold>-2.9980134963989258e-01</stageThreshold>
      <weakClassifiers>
        <_>
          <internalNodes>
            0 -1 30 -7.0604875683784485e-02</internalNodes>
          <leafValues>
            5.5555558204650879e-01 -5.6521737575531006e-01</leafValues></_>
        <_>
          <internalNodes>
            0 -1 33 1.2587837409228086e-03</internalNodes>
          <leafValues>
            2.7553182840347290e-01 -8.5535693168640137e-01</leafValues></_></weakClassifiers></_>
    <!-- stage 12 -->
    <_>
      <maxWeakCount>2</maxWeakCount>
      <stageThreshold>-2.4781906977295876e-02</stageThreshold>
      <weakClassifiers>
        <_>
          <internalNodes>
            0 -1 24 -9.5357879996299744e-02</internalNodes>
          <leafValues>
            6.4044946432113647e-01 -3.3333334326744080e-01</leafValues></_>
        <_>
          <internalNodes>
            0 -1 35 -4.0184959769248962e-02</internalNodes>
          <leafValues>
            3.7556368112564087e-01 -6.6523134708404541e-01</leafValues></_></weakClassifiers></_>
    <!-- stage 13 -->
    <_>
      <maxWeakCount>2</maxWeakCount>
      <stageThreshold>-1.3001373410224915e-01</stageThreshold>
      <weakClassifiers>
        <_>
          <internalNodes>
            0 -1 7 4.5668974518775940e-02</internalNodes>
          <leafValues>
            -6.0000002384185791e-01 5.0000000000000000e-01</leafValues></_>
        <_>
          <internalNodes>
            0 -1 19 1.1706499755382538e-01</internalNodes>
          <leafValues>
            -6.3001376390457153e-01 4.7414964437484741e-01</leafValues></_></weakClassifiers></_>
    <!-- stage 14 -->
    <_>
      <maxWeakCount>3</maxWeakCount>
      <stageThreshold>-1.0062708705663681e-01</stageThreshold>
      <weakClassifiers>
        <_>
          <internalNodes>
            0 -1 14 -2.7239823341369629e-01</internalNodes>
          <leafValues>
            6.3005781173706055e-01 -2.9341316223144531e-01</leafValues></_>
        <_>
          <internalNodes>
            0 -1 43 -2.3636005818843842e-02</internalNodes>
          <leafValues>
            6.0306590795516968e-01 -3.4883484244346619e-01</leafValues></_>
        <_>
          <internalNodes>
            0 -1 9 1.4607766270637512e-01</internalNodes>
          <leafValues>
            -3.8185003399848938e-01 5.9770375490188599e-01</leafValues></_></weakClassifiers></_>
    <!-- stage 15 -->
    <_>
      <maxWeakCount>3</maxWeakCount>
      <stageThreshold>-1.4530119299888611e-01</stageThreshold>
      <weakClassifiers>
        <_>
          <internalNodes>
            0 -1 32 -4.8889231402426958e-04</internalNodes>
          <leafValues>
            -7.4193549156188965e-01 3.8129496574401855e-01</leafValues></_>
        <_>
          <internalNodes>
            0 -1 6 -6.2139987945556641e-02</internalNodes>
          <leafValues>
            2.8276190161705017e-01 -7.3315870761871338e-01</leafValues></_>
        <_>
          <internalNodes>
            0 -1 25 1.7010474577546120e-02</internalNodes>
          <leafValues>
            -7.2907590866088867e-01 3.1387239694595337e-01</leafValues></_></weakClassifiers></_>
    <!-- stage 16 -->
    <_>
      <maxWeakCount>1</maxWeakCount>
      <stageThreshold>3.7323942780494690e-01</stageThreshold>
      <weakClassifiers>
        <_>
          <internalNodes>
            0 -1 3 5.6779690086841583e-02</internalNodes>
          <leafValues>
            -8.2142859697341919e-01 3.7323942780494690e-01</leafValues></_></weakClassifiers></_>
    <!-- stage 17 -->
    <_>
      <maxWeakCount>3</maxWeakCount>
      <stageThreshold>-2.0000389218330383e-01</stageThreshold>
      <weakClassifiers>
        <_>
          <internalNodes>
            0 -1 20 1.1285541951656342e-01</internalNodes>
          <leafValues>
            -7.9487180709838867e-01 4.6564885973930359e-01</leafValues></_>
        <_>
          <internalNodes>
            0 -1 10 -1.7569452524185181e-01</internalNodes>
          <leafValues>
            3.1509181857109070e-01 -7.3279732465744019e-01</leafValues></_>
        <_>
          <internalNodes>
            0 -1 41 -2.7264682576060295e-02</internalNodes>
          <leafValues>
            2.7977609634399414e-01 -6.7563587427139282e-01</leafValues></_></weakClassifiers></_>
    <!-- stage 18 -->
    <_>
      <maxWeakCount>2</maxWeakCount>
      <stageThreshold>-2.4701385200023651e-01</stageThreshold>
      <weakClassifiers>
        <_>
          <internalNodes>
            0 -1 23 -6.2123831361532211e-02</internalNodes>
          <leafValues>
            4.3396225571632385e-01 -7.3333334922790527e-01</leafValues></_>
        <_>
          <internalNodes>
            0 -1 15 -7.2968052700161934e-03</internalNodes>
          <leafValues>
            4.8631948232650757e-01 -3.9829802513122559e-01</leafValues></_></weakClassifiers></_>
    <!-- stage 19 -->
    <_>
      <maxWeakCount>2</maxWeakCount>
      <stageThreshold>-1.7415019869804382e-01</stageThreshold>
      <weakClassifiers>
        <_>
          <internalNodes>
            0 -1 44 -2.8309512883424759e-02</internalNodes>
          <leafValues>
            -7.1014493703842163e-01 4.0221402049064636e-01</leafValues></_>
        <_>
          <internalNodes>
            0 -1 12 -2.9711854457855225e-01</internalNodes>
          <leafValues>
            5.3599470853805542e-01 -4.2208102345466614e-01</leafValues></_></weakClassifiers></_>
    <!-- stage 20 -->
    <_>
      <maxWeakCount>1</maxWeakCount>
      <stageThreshold>3.8028168678283691e-01</stageThreshold>
      <weakClassifiers>
        <_>
          <internalNodes>
            0 -1 26 8.8848534505814314e-04</internalNodes>
          <leafValues>
            3.8028168678283691e-01 -8.5714286565780640e-01</leafValues></_></weakClassifiers></_>
    <!-- stage 21 -->
    <_>
      <maxWeakCount>1</maxWeakCount>
      <stageThreshold>3.3333334326744080e-01</stageThreshold>
      <weakClassifiers>
        <_>
          <internalNodes>
            0 -1 1 1.4311721548438072e-02</internalNodes>
          <leafValues>
            3.3333334326744080e-01 -9.0697675943374634e-01</leafValues></_></weakClassifiers></_>
    <!-- stage 22 -->
    <_>
      <maxWeakCount>2</maxWeakCount>
      <stageThreshold>5.9135973453521729e-02</stageThreshold>
      <weakClassifiers>
        <_>
          <internalNodes>
            0 -1 16 1.1472752690315247e-01</internalNodes>
          <leafValues>
            -2.1212121844291687e-01 7.1830987930297852e-01</leafValues></_>
        <_>
          <internalNodes>
            0 -1 13 -2.2035095095634460e-01</internalNodes>
          <leafValues>
            -6.5917390584945679e-01 3.1307417154312134e-01</leafValues></_></weakClassifiers></_>
    <!-- stage 23 -->
    <_>
      <maxWeakCount>1</maxWeakCount>
      <stageThreshold>4.2028984427452087e-01</stageThreshold>
      <weakClassifiers>
        <_>
          <internalNodes>
            0 -1 28 -2.7848605066537857e-02</internalNodes>
          <leafValues>
            4.2028984427452087e-01 -8.7500000000000000e-01</leafValues></_></weakClassifiers></_></stages>
  <features>
    <_>
      <rects>
        <_>
          0 0 12 10 -1.</_>
        <_>
          0 0 6 5 2.</_>
        <_>
          6 5 6 5 2.</_></rects>
      <tilted>0</tilted></_>
    <_>
      <rects>
        <_>
          0 3 2 12 -1.</_>
        <_>
          0 9 2 6 2.</_></rects>
      <tilted>0</tilted></_>
    <_>
      <rects>
        <_>
          0 5 12 9 -1.</_>
        <_>
          6 5 6 9 2.</_></rects>
      <tilted>0</tilted></_>
    <_>
      <rects>
        <_>
          0 5 14 7 -1.</_>
        <_>
          7 5 7 7 2.</_></rects>
      <tilted>0</tilted></_>
    <_>
      <rects>
        <_>
          0 6 10 10 -1.</_>
        <_>
          5 6 5 10 2.</_></rects>
      <tilted>0</tilted></_>
    <_>
      <rects>
        <_>
          0 6 14 13 -1.</_>
        <_>
          7 6 7 13 2.</_></rects>
      <tilted>0</tilted></_>
    <_>
      <rects>
        <_>
          0 12 14 12 -1.</_>
        <_>
          0 12 7 6 2.</_>
        <_>
          7 18 7 6 2.</_></rects>
      <tilted>0</tilted></_>
    <_>
      <rects>
        <_>
          1 0 8 15 -1.</_>
        <_>
          5 0 4 15 2.</_></rects>
      <tilted>0</tilted></_>
    <_>
      <rects>
        <_>
          1 5 10 11 -1.</_>
        <_>
          6 5 5 11 2.</_></rects>
      <tilted>0</tilted></_>
    <_>
      <rects>
        <_>
          1 6 10 18 -1.</_>
        <_>
          6 6 5 18 2.</_></rects>
      <tilted>0</tilted></_>
    <_>
      <rects>
        <_>
          1 7 18 16 -1.</_>
        <_>
          1 15 18 8 2.</_></rects>
      <tilted>0</tilted></_>
    <_>
      <rects>
        <_>
          1 10 10 14 -1.</_>
        <_>
          1 10 5 7 2.</_>
        <_>
          6 17 5 7 2.</_></rects>
      <tilted>0</tilted></_>
    <_>
      <rects>
        <_>
          3 8 15 16 -1.</_>
        <_>
          3 16 15 8 2.</_></rects>
      <tilted>0</tilted></_>
    <_>
      <rects>
        <_>
          4 15 18 6 -1.</_>
        <_>
          10 15 6 6 2.</_></rects>
      <tilted>0</tilted></_>
    <_>
      <rects>
        <_>
          5 10 15 14 -1.</_>
        <_>
          5 17 15 7 2.</_></rects>
      <tilted>0</tilted></_>
    <_>
      <rects>
        <_>
          5 18 19 2 -1.</_>
        <_>
          5 19 19 1 2.</_></rects>
      <tilted>0</tilted></_>
    <_>
      <rects>
        <_>
          6 0 7 12 -1.</_>
        <_>
          6 6 7 6 2.</_></rects>
      <tilted>0</tilted></_>
    <_>
      <rects>
        <_>
          6 0 14 12 -1.</_>
        <_>
          6 6 14 6 2.</_></rects>
      <tilted>0</tilted></_>
    <_>
      <rects>
        <_>
          6 0 14 14 -1.</_>
        <_>
          6 7 14 7 2.</_></rects>
      <tilted>0</tilted></_>
    <_>
      <rects>
        <_>
          6 0 18 10 -1.</_>
        <_>
          6 5 18 5 2.</_></rects>
      <tilted>0</tilted></_>
    <_>
      <rects>
        <_>
          7 0 10 12 -1.</_>
        <_>
          7 6 10 6 2.</_></rects>
      <tilted>0</tilted></_>
    <_>
      <rects>
        <_>
          7 8 14 16 -1.</_>
        <_>
          7 16 14 8 2.</_></rects>
      <tilted>0</tilted></_>
    <_>
      <rects>
        <_>
          7 13 11 10 -1.</_>
        <_>
          7 18 11 5 2.</_></rects>
      <tilted>0</tilted></_>
    <_>
      <rects>
        <_>
          8 9 5 14 -1.</_>
        <_>
          8 16 5 7 2.</_></rects>
      <tilted>0</tilted></_>
    <_>
      <rects>
        <_>
          8 12 6 12 -1.</_>
        <_>
          8 18 6 6 2.</_></rects>
      <tilted>0</tilted></_>
    <_>
      <rects>
        <_>
          10 1 2 10 -1.</_>
        <_>
          10 6 2 5 2.</_></rects>
      <tilted>0</tilted></_>
    <_>
      <rects>
        <_>
          10 9 2 4 -1.</_>
        <_>
          10 9 1 2 2.</_>
        <_>
          11 11 1 2 2.</_></rects>
      <tilted>0</tilted></_>
    <_>
      <rects>
        <_>
          11 0 6 12 -1.</_>
        <_>
          11 6 6 6 2.</_></rects>
      <tilted>0</tilted></_>
    <_>
      <rects>
        <_>
          11 8 4 3 -1.</_>
        <_>
          11 9 4 1 2.</_></rects>
      <tilted>0</tilted></_>
    <_>
      <rects>
        <_>
          11 8 5 16 -1.</_>
        <_>
          11 16 5 8 2.</_></rects>
      <tilted>0</tilted></_>
    <_>
      <rects>
        <_>
          11 13 7 10 -1.</_>
        <_>
          11 18 7 5 2.</_></rects>
      <tilted>0</tilted></_>
    <_>
      <rects>
        <_>
          12 8 12 1 -1.</_>
        <_>
          18 8 6 1 2.</_></rects>
      <tilted>0</tilted></_>
    <_>
      <rects>
        <_>
          12 10 2 2 -1.</_>
        <_>
          13 10 1 2 2.</_></rects>
      <tilted>0</tilted></_>
    <_>
      <rects>
        <_>
          12 10 2 4 -1.</_>
        <_>
          12 12 2 2 2.</_></rects>
      <tilted>0</tilted></_>
    <_>
      <rects>
        <_>
          14 0 10 14 -1.</_>
        <_>
          14 0 5 7 2.</_>
        <_>
          19 7 5 7 2.</_></rects>
      <tilted>0</tilted></_>
    <_>
      <rects>
        <_>
          14 1 10 12 -1.</_>
        <_>
          14 1 5 6 2.</_>
        <_>
          19 7 5 6 2.</_></rects>
      <tilted>0</tilted></_>
    <_>
      <rects>
        <_>
          14 2 5 18 -1.</_>
        <_>
          14 8 5 6 2.</_></rects>
      <tilted>0</tilted></_>
    <_>
      <rects>
        <_>
          14 8 1 6 -1.</_>
        <_>
          14 10 1 2 2.</_></rects>
      <tilted>0</tilted></_>
    <_>
      <rects>
        <_>
          14 8 10 8 -1.</_>
        <_>
          19 8 5 8 2.</_></rects>
      <tilted>0</tilted></_>
    <_>
      <rects>
        <_>
          14 9 10 5 -1.</_>
        <_>
          19 9 5 5 2.</_></rects>
      <tilted>0</tilted></_>
    <_>
      <rects>
        <_>
          14 11 10 3 -1.</_>
        <_>
          19 11 5 3 2.</_></rects>
      <tilted>0</tilted></_>
    <_>
      <rects>
        <_>
          16 0 8 14 -1.</_>
        <_>
          16 0 4 7 2.</_>
        <_>
          20 7 4 7 2.</_></rects>
      <tilted>0</tilted></_>
    <_>
      <rects>
        <_>
          16 8 8 16 -1.</_>
        <_>
          16 8 4 8 2.</_>
        <_>
          20 16 4 8 2.</_></rects>
      <tilted>0</tilted></_>
    <_>
      <rects>
        <_>
          18 5 4 16 -1.</_>
        <_>
          20 5 2 16 2.</_></rects>
      <tilted>0</tilted></_>
    <_>
      <rects>
        <_>
          23 2 1 12 -1.</_>
        <_>
          23 6 1 4 2.</_></rects>
      <tilted>0</tilted></_></features></cascade>
</opencv_storage>
