<?xml version="1.0"?>
<opencv_storage>
<cascade>
  <stageType>BOOST</stageType>
  <featureType>HAAR</featureType>
  <height>30</height>
  <width>30</width>
  <stageParams>
    <boostType>GAB</boostType>
    <minHitRate>9.7000002861022949e-01</minHitRate>
    <maxFalseAlarm>8.7999999523162842e-01</maxFalseAlarm>
    <weightTrimRate>9.4999999999999996e-01</weightTrimRate>
    <maxDepth>1</maxDepth>
    <maxWeakCount>100</maxWeakCount></stageParams>
  <featureParams>
    <maxCatCount>0</maxCatCount>
    <featSize>1</featSize>
    <mode>BASIC</mode></featureParams>
  <stageNum>32</stageNum>
  <stages>
    <!-- stage 0 -->
    <_>
      <maxWeakCount>1</maxWeakCount>
      <stageThreshold>9.8019802570343018e-01</stageThreshold>
      <weakClassifiers>
        <_>
          <internalNodes>
            0 -1 30 -1.5029698610305786e-02</internalNodes>
          <leafValues>
            -1. 9.8019802570343018e-01</leafValues></_></weakClassifiers></_>
    <!-- stage 1 -->
    <_>
      <maxWeakCount>2</maxWeakCount>
      <stageThreshold>-2.9634633660316467e-01</stageThreshold>
      <weakClassifiers>
        <_>
          <internalNodes>
            0 -1 6 -1.3152959942817688e-01</internalNodes>
          <leafValues>
            7.0666664838790894e-01 -8.6666667461395264e-01</leafValues></_>
        <_>
          <internalNodes>
            0 -1 18 -1.1408650875091553e-01</internalNodes>
          <leafValues>
            5.7032030820846558e-01 -8.2069075107574463e-01</leafValues></_></weakClassifiers></_>
    <!-- stage 2 -->
    <_>
      <maxWeakCount>1</maxWeakCount>
      <stageThreshold>5.6626504659652710e-01</stageThreshold>
      <weakClassifiers>
        <_>
          <internalNodes>
            0 -1 24 1.1299453675746918e-01</internalNodes>
          <leafValues>
            -8.9583331346511841e-01 5.6626504659652710e-01</leafValues></_></weakClassifiers></_>
    <!-- stage 3 -->
    <_>
      <maxWeakCount>2</maxWeakCount>
      <stageThreshold>-3.3944609761238098e-01</stageThreshold>
      <weakClassifiers>
        <_>
          <internalNodes>
            0 -1 2 -6.9039739668369293e-02</internalNodes>
          <leafValues>
            5.8995813131332397e-01 -8.1132078170776367e-01</leafValues></_>
        <_>
          <internalNodes>
            0 -1 27 -1.9250471144914627e-02</internalNodes>
          <leafValues>
            4.7187465429306030e-01 -8.5814011096954346e-01</leafValues></_></weakClassifiers></_>
    <!-- stage 4 -->
    <_>
      <maxWeakCount>1</maxWeakCount>
      <stageThreshold>4.8872181773185730e-01</stageThreshold>
      <weakClassifiers>
        <_>
          <internalNodes>
            0 -1 5 -3.1895900610834360e-03</internalNodes>
          <leafValues>
            4.8872181773185730e-01 -9.4936710596084595e-01</leafValues></_></weakClassifiers></_>
    <!-- stage 5 -->
    <_>
      <maxWeakCount>1</maxWeakCount>
      <stageThreshold>5.0000000000000000e-01</stageThreshold>
      <weakClassifiers>
        <_>
          <internalNodes>
            0 -1 40 -1.7622567247599363e-04</internalNodes>
          <leafValues>
            -8.8235294818878174e-01 5.0000000000000000e-01</leafValues></_></weakClassifiers></_>
    <!-- stage 6 -->
    <_>
      <maxWeakCount>1</maxWeakCount>
      <stageThreshold>4.7565543651580811e-01</stageThreshold>
      <weakClassifiers>
        <_>
          <internalNodes>
            0 -1 35 4.4850410631624982e-05</internalNodes>
          <leafValues>
            4.7565543651580811e-01 -9.2307692766189575e-01</leafValues></_></weakClassifiers></_>
    <!-- stage 7 -->
    <_>
      <maxWeakCount>2</maxWeakCount>
      <stageThreshold>-4.5298752188682556e-01</stageThreshold>
      <weakClassifiers>
        <_>
          <internalNodes>
            0 -1 34 -1.0979917715303600e-04</internalNodes>
          <leafValues>
            -7.9816514253616333e-01 6.0169494152069092e-01</leafValues></_>
        <_>
          <internalNodes>
            0 -1 29 -1.7686422914266586e-02</internalNodes>
          <leafValues>
            -8.6766284704208374e-01 3.4517762064933777e-01</leafValues></_></weakClassifiers></_>
    <!-- stage 8 -->
    <_>
      <maxWeakCount>2</maxWeakCount>
      <stageThreshold>-3.1005796790122986e-01</stageThreshold>
      <weakClassifiers>
        <_>
          <internalNodes>
            0 -1 35 -5.0357797590550035e-05</internalNodes>
          <leafValues>
            -7.8640776872634888e-01 5.6198346614837646e-01</leafValues></_>
        <_>
          <internalNodes>
            0 -1 14 -1.0548358783125877e-02</internalNodes>
          <leafValues>
            4.7634980082511902e-01 -6.8128150701522827e-01</leafValues></_></weakClassifiers></_>
    <!-- stage 9 -->
    <_>
      <maxWeakCount>2</maxWeakCount>
      <stageThreshold>-5.1173007488250732e-01</stageThreshold>
      <weakClassifiers>
        <_>
          <internalNodes>
            0 -1 23 -5.0846028898376971e-05</internalNodes>
          <leafValues>
            -8.2926827669143677e-01 4.6768060326576233e-01</leafValues></_>
        <_>
          <internalNodes>
            0 -1 4 -4.4438729673856869e-05</internalNodes>
          <leafValues>
            -8.1897658109664917e-01 3.1753820180892944e-01</leafValues></_></weakClassifiers></_>
    <!-- stage 10 -->
    <_>
      <maxWeakCount>2</maxWeakCount>
      <stageThreshold>-2.8438881039619446e-01</stageThreshold>
      <weakClassifiers>
        <_>
          <internalNodes>
            0 -1 12 1.3885647058486938e-02</internalNodes>
          <leafValues>
            -6.0317462682723999e-01 5.9817349910736084e-01</leafValues></_>
        <_>
          <internalNodes>
            0 -1 1 2.8141235816292465e-05</internalNodes>
          <leafValues>
            3.7856000661849976e-01 -8.8256233930587769e-01</leafValues></_></weakClassifiers></_>
    <!-- stage 11 -->
    <_>
      <maxWeakCount>2</maxWeakCount>
      <stageThreshold>-4.3311178684234619e-01</stageThreshold>
      <weakClassifiers>
        <_>
          <internalNodes>
            0 -1 15 5.7778059272095561e-05</internalNodes>
          <leafValues>
            5.1394420862197876e-01 -7.8723406791687012e-01</leafValues></_>
        <_>
          <internalNodes>
            0 -1 22 -4.9104895442724228e-03</internalNodes>
          <leafValues>
            3.5412225127220154e-01 -8.7102681398391724e-01</leafValues></_></weakClassifiers></_>
    <!-- stage 12 -->
    <_>
      <maxWeakCount>2</maxWeakCount>
      <stageThreshold>-3.8206747174263000e-01</stageThreshold>
      <weakClassifiers>
        <_>
          <internalNodes>
            0 -1 36 2.7790723834186792e-05</internalNodes>
          <leafValues>
            4.9416342377662659e-01 -8.1818181276321411e-01</leafValues></_>
        <_>
          <internalNodes>
            0 -1 11 -2.7022710128221661e-05</internalNodes>
          <leafValues>
            -7.5279152393341064e-01 4.3611434102058411e-01</leafValues></_></weakClassifiers></_>
    <!-- stage 13 -->
    <_>
      <maxWeakCount>2</maxWeakCount>
      <stageThreshold>-3.6139675974845886e-01</stageThreshold>
      <weakClassifiers>
        <_>
          <internalNodes>
            0 -1 23 3.6352830647956580e-05</internalNodes>
          <leafValues>
            4.9803921580314636e-01 -8.0000001192092896e-01</leafValues></_>
        <_>
          <internalNodes>
            0 -1 1 -2.7674701414071023e-05</internalNodes>
          <leafValues>
            -6.4270800352096558e-01 4.3860325217247009e-01</leafValues></_></weakClassifiers></_>
    <!-- stage 14 -->
    <_>
      <maxWeakCount>2</maxWeakCount>
      <stageThreshold>-4.2700195312500000e-01</stageThreshold>
      <weakClassifiers>
        <_>
          <internalNodes>
            0 -1 26 -2.2291529923677444e-02</internalNodes>
          <leafValues>
            5.1587301492691040e-01 -8.0645161867141724e-01</leafValues></_>
        <_>
          <internalNodes>
            0 -1 39 -1.0427759843878448e-04</internalNodes>
          <leafValues>
            -8.7664204835891724e-01 3.7944963574409485e-01</leafValues></_></weakClassifiers></_>
    <!-- stage 15 -->
    <_>
      <maxWeakCount>1</maxWeakCount>
      <stageThreshold>4.9433961510658264e-01</stageThreshold>
      <weakClassifiers>
        <_>
          <internalNodes>
            0 -1 8 2.9612524667754769e-04</internalNodes>
          <leafValues>
            4.9433961510658264e-01 -9.4999998807907104e-01</leafValues></_></weakClassifiers></_>
    <!-- stage 16 -->
    <_>
      <maxWeakCount>2</maxWeakCount>
      <stageThreshold>-4.5695564150810242e-01</stageThreshold>
      <weakClassifiers>
        <_>
          <internalNodes>
            0 -1 17 -3.8731005042791367e-02</internalNodes>
          <leafValues>
            4.8262548446655273e-01 -8.1395345926284790e-01</leafValues></_>
        <_>
          <internalNodes>
            0 -1 0 -8.5809372831135988e-04</internalNodes>
          <leafValues>
            -8.4645384550094604e-01 3.5699784755706787e-01</leafValues></_></weakClassifiers></_>
    <!-- stage 17 -->
    <_>
      <maxWeakCount>1</maxWeakCount>
      <stageThreshold>4.6067416667938232e-01</stageThreshold>
      <weakClassifiers>
        <_>
          <internalNodes>
            0 -1 7 5.4668271332047880e-05</internalNodes>
          <leafValues>
            4.6067416667938232e-01 -8.7179487943649292e-01</leafValues></_></weakClassifiers></_>
    <!-- stage 18 -->
    <_>
      <maxWeakCount>2</maxWeakCount>
      <stageThreshold>-4.4666969776153564e-01</stageThreshold>
      <weakClassifiers>
        <_>
          <internalNodes>
            0 -1 7 -5.3388255764730275e-05</internalNodes>
          <leafValues>
            -7.8181821107864380e-01 6.0000002384185791e-01</leafValues></_>
        <_>
          <internalNodes>
            0 -1 33 -5.3826792282052338e-05</internalNodes>
          <leafValues>
            -8.9298844337463379e-01 3.3514848351478577e-01</leafValues></_></weakClassifiers></_>
    <!-- stage 19 -->
    <_>
      <maxWeakCount>2</maxWeakCount>
      <stageThreshold>-4.5541375875473022e-01</stageThreshold>
      <weakClassifiers>
        <_>
          <internalNodes>
            0 -1 44 1.2347607116680592e-04</internalNodes>
          <leafValues>
            4.6007603406906128e-01 -8.0487805604934692e-01</leafValues></_>
        <_>
          <internalNodes>
            0 -1 25 1.5146935358643532e-02</internalNodes>
          <leafValues>
            -7.9538327455520630e-01 3.4946429729461670e-01</leafValues></_></weakClassifiers></_>
    <!-- stage 20 -->
    <_>
      <maxWeakCount>2</maxWeakCount>
      <stageThreshold>-5.4028618335723877e-01</stageThreshold>
      <weakClassifiers>
        <_>
          <internalNodes>
            0 -1 37 2.5984834792325273e-05</internalNodes>
          <leafValues>
            4.7528517246246338e-01 -8.5365855693817139e-01</leafValues></_>
        <_>
          <internalNodes>
            0 -1 41 -3.0558571219444275e-02</internalNodes>
          <leafValues>
            3.1337234377861023e-01 -9.3516731262207031e-01</leafValues></_></weakClassifiers></_>
    <!-- stage 21 -->
    <_>
      <maxWeakCount>1</maxWeakCount>
      <stageThreshold>4.4322344660758972e-01</stageThreshold>
      <weakClassifiers>
        <_>
          <internalNodes>
            0 -1 16 -3.8085501728346571e-05</internalNodes>
          <leafValues>
            -9.1666668653488159e-01 4.4322344660758972e-01</leafValues></_></weakClassifiers></_>
    <!-- stage 22 -->
    <_>
      <maxWeakCount>2</maxWeakCount>
      <stageThreshold>-5.0774180889129639e-01</stageThreshold>
      <weakClassifiers>
        <_>
          <internalNodes>
            0 -1 13 -1.2805718928575516e-02</internalNodes>
          <leafValues>
            5.4581671953201294e-01 -8.7234044075012207e-01</leafValues></_>
        <_>
          <internalNodes>
            0 -1 16 3.9618622395209968e-05</internalNodes>
          <leafValues>
            3.6459863185882568e-01 -9.2793047428131104e-01</leafValues></_></weakClassifiers></_>
    <!-- stage 23 -->
    <_>
      <maxWeakCount>2</maxWeakCount>
      <stageThreshold>-4.6432963013648987e-01</stageThreshold>
      <weakClassifiers>
        <_>
          <internalNodes>
            0 -1 7 -5.5579403124283999e-05</internalNodes>
          <leafValues>
            -8.0645161867141724e-01 5.1587301492691040e-01</leafValues></_>
        <_>
          <internalNodes>
            0 -1 43 5.6616765505168587e-05</internalNodes>
          <leafValues>
            3.4212198853492737e-01 -9.2381268739700317e-01</leafValues></_></weakClassifiers></_>
    <!-- stage 24 -->
    <_>
      <maxWeakCount>2</maxWeakCount>
      <stageThreshold>-1.5931692719459534e-01</stageThreshold>
      <weakClassifiers>
        <_>
          <internalNodes>
            0 -1 3 -1.0176257637795061e-04</internalNodes>
          <leafValues>
            -6.2500000000000000e-01 5.3648066520690918e-01</leafValues></_>
        <_>
          <internalNodes>
            0 -1 20 -7.8113662311807275e-05</internalNodes>
          <leafValues>
            -6.6894537210464478e-01 4.6568307280540466e-01</leafValues></_></weakClassifiers></_>
    <!-- stage 25 -->
    <_>
      <maxWeakCount>2</maxWeakCount>
      <stageThreshold>-4.9392616748809814e-01</stageThreshold>
      <weakClassifiers>
        <_>
          <internalNodes>
            0 -1 16 2.7990365197183564e-05</internalNodes>
          <leafValues>
            5.2569168806076050e-01 -8.4782606363296509e-01</leafValues></_>
        <_>
          <internalNodes>
            0 -1 38 2.4465007300022990e-05</internalNodes>
          <leafValues>
            3.5389992594718933e-01 -9.4025468826293945e-01</leafValues></_></weakClassifiers></_>
    <!-- stage 26 -->
    <_>
      <maxWeakCount>1</maxWeakCount>
      <stageThreshold>4.7368422150611877e-01</stageThreshold>
      <weakClassifiers>
        <_>
          <internalNodes>
            0 -1 42 -2.7734063565731049e-02</internalNodes>
          <leafValues>
            4.7368422150611877e-01 -8.9873415231704712e-01</leafValues></_></weakClassifiers></_>
    <!-- stage 27 -->
    <_>
      <maxWeakCount>1</maxWeakCount>
      <stageThreshold>4.5925927162170410e-01</stageThreshold>
      <weakClassifiers>
        <_>
          <internalNodes>
            0 -1 32 -5.5421602155547589e-05</internalNodes>
          <leafValues>
            -9.2000001668930054e-01 4.5925927162170410e-01</leafValues></_></weakClassifiers></_>
    <!-- stage 28 -->
    <_>
      <maxWeakCount>2</maxWeakCount>
      <stageThreshold>-4.0585607290267944e-01</stageThreshold>
      <weakClassifiers>
        <_>
          <internalNodes>
            0 -1 28 -3.1392231583595276e-02</internalNodes>
          <leafValues>
            -7.2000002861022949e-01 5.1836735010147095e-01</leafValues></_>
        <_>
          <internalNodes>
            0 -1 9 -4.0268365410156548e-05</internalNodes>
          <leafValues>
            -1. 3.1414395570755005e-01</leafValues></_></weakClassifiers></_>
    <!-- stage 29 -->
    <_>
      <maxWeakCount>1</maxWeakCount>
      <stageThreshold>5.4687500000000000e-01</stageThreshold>
      <weakClassifiers>
        <_>
          <internalNodes>
            0 -1 10 8.0588353739585727e-05</internalNodes>
          <leafValues>
            5.4687500000000000e-01 -9.5505619049072266e-01</leafValues></_></weakClassifiers></_>
    <!-- stage 30 -->
    <_>
      <maxWeakCount>2</maxWeakCount>
      <stageThreshold>-1.6530036926269531e-01</stageThreshold>
      <weakClassifiers>
        <_>
          <internalNodes>
            0 -1 21 -2.2929139435291290e-02</internalNodes>
          <leafValues>
            7.4766355752944946e-01 -8.0152672529220581e-01</leafValues></_>
        <_>
          <internalNodes>
            0 -1 31 2.8220089734531939e-04</internalNodes>
          <leafValues>
            6.3622635602951050e-01 -9.8878264427185059e-01</leafValues></_></weakClassifiers></_>
    <!-- stage 31 -->
    <_>
      <maxWeakCount>1</maxWeakCount>
      <stageThreshold>1.</stageThreshold>
      <weakClassifiers>
        <_>
          <internalNodes>
            0 -1 19 -9.7731873393058777e-02</internalNodes>
          <leafValues>
            -9.4630873203277588e-01 1.</leafValues></_></weakClassifiers></_></stages>
  <features>
    <_>
      <rects>
        <_>
          0 0 16 1 -1.</_>
        <_>
          8 0 8 1 2.</_></rects>
      <tilted>0</tilted></_>
    <_>
      <rects>
        <_>
          0 1 2 2 -1.</_>
        <_>
          0 1 1 1 2.</_>
        <_>
          1 2 1 1 2.</_></rects>
      <tilted>0</tilted></_>
    <_>
      <rects>
        <_>
          0 2 26 27 -1.</_>
        <_>
          13 2 13 27 2.</_></rects>
      <tilted>0</tilted></_>
    <_>
      <rects>
        <_>
          0 4 2 8 -1.</_>
        <_>
          0 4 1 4 2.</_>
        <_>
          1 8 1 4 2.</_></rects>
      <tilted>0</tilted></_>
    <_>
      <rects>
        <_>
          0 6 1 2 -1.</_>
        <_>
          0 7 1 1 2.</_></rects>
      <tilted>0</tilted></_>
    <_>
      <rects>
        <_>
          0 6 1 3 -1.</_>
        <_>
          0 7 1 1 2.</_></rects>
      <tilted>0</tilted></_>
    <_>
      <rects>
        <_>
          0 6 18 14 -1.</_>
        <_>
          9 6 9 14 2.</_></rects>
      <tilted>0</tilted></_>
    <_>
      <rects>
        <_>
          0 11 1 2 -1.</_>
        <_>
          0 12 1 1 2.</_></rects>
      <tilted>0</tilted></_>
    <_>
      <rects>
        <_>
          0 11 2 17 -1.</_>
        <_>
          1 11 1 17 2.</_></rects>
      <tilted>0</tilted></_>
    <_>
      <rects>
        <_>
          1 0 2 1 -1.</_>
        <_>
          2 0 1 1 2.</_></rects>
      <tilted>0</tilted></_>
    <_>
      <rects>
        <_>
          1 0 2 2 -1.</_>
        <_>
          2 0 1 2 2.</_></rects>
      <tilted>0</tilted></_>
    <_>
      <rects>
        <_>
          1 9 1 2 -1.</_>
        <_>
          1 10 1 1 2.</_></rects>
      <tilted>0</tilted></_>
    <_>
      <rects>
        <_>
          1 24 29 6 -1.</_>
        <_>
          1 27 29 3 2.</_></rects>
      <tilted>0</tilted></_>
    <_>
      <rects>
        <_>
          2 0 22 8 -1.</_>
        <_>
          2 4 22 4 2.</_></rects>
      <tilted>0</tilted></_>
    <_>
      <rects>
        <_>
          2 0 28 6 -1.</_>
        <_>
          2 3 28 3 2.</_></rects>
      <tilted>0</tilted></_>
    <_>
      <rects>
        <_>
          2 3 2 2 -1.</_>
        <_>
          3 3 1 2 2.</_></rects>
      <tilted>0</tilted></_>
    <_>
      <rects>
        <_>
          3 0 2 1 -1.</_>
        <_>
          4 0 1 1 2.</_></rects>
      <tilted>0</tilted></_>
    <_>
      <rects>
        <_>
          4 6 18 17 -1.</_>
        <_>
          13 6 9 17 2.</_></rects>
      <tilted>0</tilted></_>
    <_>
      <rects>
        <_>
          5 0 15 16 -1.</_>
        <_>
          5 8 15 8 2.</_></rects>
      <tilted>0</tilted></_>
    <_>
      <rects>
        <_>
          5 7 14 10 -1.</_>
        <_>
          5 12 14 5 2.</_></rects>
      <tilted>0</tilted></_>
    <_>
      <rects>
        <_>
          6 0 2 6 -1.</_>
        <_>
          6 0 1 3 2.</_>
        <_>
          7 3 1 3 2.</_></rects>
      <tilted>0</tilted></_>
    <_>
      <rects>
        <_>
          6 0 20 8 -1.</_>
        <_>
          6 4 20 4 2.</_></rects>
      <tilted>0</tilted></_>
    <_>
      <rects>
        <_>
          8 9 13 6 -1.</_>
        <_>
          8 12 13 3 2.</_></rects>
      <tilted>0</tilted></_>
    <_>
      <rects>
        <_>
          10 0 2 1 -1.</_>
        <_>
          11 0 1 1 2.</_></rects>
      <tilted>0</tilted></_>
    <_>
      <rects>
        <_>
          10 9 20 14 -1.</_>
        <_>
          20 9 10 14 2.</_></rects>
      <tilted>0</tilted></_>
    <_>
      <rects>
        <_>
          10 20 11 10 -1.</_>
        <_>
          10 25 11 5 2.</_></rects>
      <tilted>0</tilted></_>
    <_>
      <rects>
        <_>
          11 0 11 10 -1.</_>
        <_>
          11 5 11 5 2.</_></rects>
      <tilted>0</tilted></_>
    <_>
      <rects>
        <_>
          12 0 18 1 -1.</_>
        <_>
          18 0 6 1 2.</_></rects>
      <tilted>0</tilted></_>
    <_>
      <rects>
        <_>
          12 9 6 9 -1.</_>
        <_>
          12 12 6 3 2.</_></rects>
      <tilted>0</tilted></_>
    <_>
      <rects>
        <_>
          12 12 6 6 -1.</_>
        <_>
          12 14 6 2 2.</_></rects>
      <tilted>0</tilted></_>
    <_>
      <rects>
        <_>
          12 13 8 3 -1.</_>
        <_>
          12 14 8 1 2.</_></rects>
      <tilted>0</tilted></_>
    <_>
      <rects>
        <_>
          17 0 8 1 -1.</_>
        <_>
          21 0 4 1 2.</_></rects>
      <tilted>0</tilted></_>
    <_>
      <rects>
        <_>
          17 28 1 2 -1.</_>
        <_>
          17 29 1 1 2.</_></rects>
      <tilted>0</tilted></_>
    <_>
      <rects>
        <_>
          19 1 2 1 -1.</_>
        <_>
          20 1 1 1 2.</_></rects>
      <tilted>0</tilted></_>
    <_>
      <rects>
        <_>
          23 0 4 1 -1.</_>
        <_>
          25 0 2 1 2.</_></rects>
      <tilted>0</tilted></_>
    <_>
      <rects>
        <_>
          24 0 2 1 -1.</_>
        <_>
          25 0 1 1 2.</_></rects>
      <tilted>0</tilted></_>
    <_>
      <rects>
        <_>
          25 0 2 1 -1.</_>
        <_>
          26 0 1 1 2.</_></rects>
      <tilted>0</tilted></_>
    <_>
      <rects>
        <_>
          26 0 2 1 -1.</_>
        <_>
          27 0 1 1 2.</_></rects>
      <tilted>0</tilted></_>
    <_>
      <rects>
        <_>
          28 0 2 1 -1.</_>
        <_>
          29 0 1 1 2.</_></rects>
      <tilted>0</tilted></_>
    <_>
      <rects>
        <_>
          28 6 2 4 -1.</_>
        <_>
          29 6 1 4 2.</_></rects>
      <tilted>0</tilted></_>
    <_>
      <rects>
        <_>
          28 14 2 6 -1.</_>
        <_>
          29 14 1 6 2.</_></rects>
      <tilted>0</tilted></_>
    <_>
      <rects>
        <_>
          29 0 1 30 -1.</_>
        <_>
          29 10 1 10 2.</_></rects>
      <tilted>0</tilted></_>
    <_>
      <rects>
        <_>
          29 2 1 27 -1.</_>
        <_>
          29 11 1 9 2.</_></rects>
      <tilted>0</tilted></_>
    <_>
      <rects>
        <_>
          29 11 1 2 -1.</_>
        <_>
          29 12 1 1 2.</_></rects>
      <tilted>0</tilted></_>
    <_>
      <rects>
        <_>
          29 11 1 4 -1.</_>
        <_>
          29 13 1 2 2.</_></rects>
      <tilted>0</tilted></_></features></cascade>
</opencv_storage>
