<?xml version="1.0"?>
<opencv_storage>
<cascade>
  <stageType>BOOST</stageType>
  <featureType>HAAR</featureType>
  <height>30</height>
  <width>30</width>
  <stageParams>
    <boostType>GAB</boostType>
    <minHitRate>8.0000001192092896e-01</minHitRate>
    <maxFalseAlarm>8.0000001192092896e-01</maxFalseAlarm>
    <weightTrimRate>9.4999999999999996e-01</weightTrimRate>
    <maxDepth>1</maxDepth>
    <maxWeakCount>100</maxWeakCount></stageParams>
  <featureParams>
    <maxCatCount>0</maxCatCount>
    <featSize>1</featSize>
    <mode>BASIC</mode></featureParams>
  <stageNum>8</stageNum>
  <stages>
    <!-- stage 0 -->
    <_>
      <maxWeakCount>1</maxWeakCount>
      <stageThreshold>1.</stageThreshold>
      <weakClassifiers>
        <_>
          <internalNodes>
            0 -1 5 -3.3624283969402313e-02</internalNodes>
          <leafValues>
            -1. 1.</leafValues></_></weakClassifiers></_>
    <!-- stage 1 -->
    <_>
      <maxWeakCount>1</maxWeakCount>
      <stageThreshold>4.7368422150611877e-01</stageThreshold>
      <weakClassifiers>
        <_>
          <internalNodes>
            0 -1 7 -1.1569476127624512e-01</internalNodes>
          <leafValues>
            4.7368422150611877e-01 -9.5652174949645996e-01</leafValues></_></weakClassifiers></_>
    <!-- stage 2 -->
    <_>
      <maxWeakCount>1</maxWeakCount>
      <stageThreshold>5.7575756311416626e-01</stageThreshold>
      <weakClassifiers>
        <_>
          <internalNodes>
            0 -1 10 7.0172883570194244e-03</internalNodes>
          <leafValues>
            -9.1752576828002930e-01 5.7575756311416626e-01</leafValues></_></weakClassifiers></_>
    <!-- stage 3 -->
    <_>
      <maxWeakCount>1</maxWeakCount>
      <stageThreshold>2.6086956262588501e-01</stageThreshold>
      <weakClassifiers>
        <_>
          <internalNodes>
            0 -1 4 -1.9882382825016975e-02</internalNodes>
          <leafValues>
            2.6086956262588501e-01 -9.7619044780731201e-01</leafValues></_></weakClassifiers></_>
    <!-- stage 4 -->
    <_>
      <maxWeakCount>1</maxWeakCount>
      <stageThreshold>5.1351350545883179e-01</stageThreshold>
      <weakClassifiers>
        <_>
          <internalNodes>
            0 -1 0 -1.7146252095699310e-02</internalNodes>
          <leafValues>
            5.1351350545883179e-01 -9.5698922872543335e-01</leafValues></_></weakClassifiers></_>
    <!-- stage 5 -->
    <_>
      <maxWeakCount>2</maxWeakCount>
      <stageThreshold>-3.0393901467323303e-01</stageThreshold>
      <weakClassifiers>
        <_>
          <internalNodes>
            0 -1 8 -5.0678052008152008e-02</internalNodes>
          <leafValues>
            -7.8571426868438721e-01 1.</leafValues></_>
        <_>
          <internalNodes>
            0 -1 1 2.0718932151794434e-02</internalNodes>
          <leafValues>
            -9.7870600223541260e-01 4.8177528381347656e-01</leafValues></_></weakClassifiers></_>
    <!-- stage 6 -->
    <_>
      <maxWeakCount>2</maxWeakCount>
      <stageThreshold>-2.5983023643493652e-01</stageThreshold>
      <weakClassifiers>
        <_>
          <internalNodes>
            0 -1 9 -1.3079710770398378e-03</internalNodes>
          <leafValues>
            -8.6000001430511475e-01 5.3333336114883423e-01</leafValues></_>
        <_>
          <internalNodes>
            0 -1 6 8.4228720515966415e-03</internalNodes>
          <leafValues>
            -7.9316359758377075e-01 6.3571953773498535e-01</leafValues></_></weakClassifiers></_>
    <!-- stage 7 -->
    <_>
      <maxWeakCount>2</maxWeakCount>
      <stageThreshold>-1.9756589829921722e-01</stageThreshold>
      <weakClassifiers>
        <_>
          <internalNodes>
            0 -1 3 5.2422475069761276e-02</internalNodes>
          <leafValues>
            -7.2413790225982666e-01 1.</leafValues></_>
        <_>
          <internalNodes>
            0 -1 2 -2.0771763229276985e-04</internalNodes>
          <leafValues>
            -8.8833081722259521e-01 5.2657204866409302e-01</leafValues></_></weakClassifiers></_></stages>
  <features>
    <_>
      <rects>
        <_>
          0 3 6 27 -1.</_>
        <_>
          3 3 3 27 2.</_></rects>
      <tilted>0</tilted></_>
    <_>
      <rects>
        <_>
          0 24 29 6 -1.</_>
        <_>
          0 27 29 3 2.</_></rects>
      <tilted>0</tilted></_>
    <_>
      <rects>
        <_>
          2 18 2 7 -1.</_>
        <_>
          3 18 1 7 2.</_></rects>
      <tilted>0</tilted></_>
    <_>
      <rects>
        <_>
          6 7 16 12 -1.</_>
        <_>
          6 7 8 6 2.</_>
        <_>
          14 13 8 6 2.</_></rects>
      <tilted>0</tilted></_>
    <_>
      <rects>
        <_>
          7 8 6 18 -1.</_>
        <_>
          10 8 3 18 2.</_></rects>
      <tilted>0</tilted></_>
    <_>
      <rects>
        <_>
          7 16 14 3 -1.</_>
        <_>
          7 17 14 1 2.</_></rects>
      <tilted>0</tilted></_>
    <_>
      <rects>
        <_>
          8 9 4 18 -1.</_>
        <_>
          8 9 2 9 2.</_>
        <_>
          10 18 2 9 2.</_></rects>
      <tilted>0</tilted></_>
    <_>
      <rects>
        <_>
          9 0 15 14 -1.</_>
        <_>
          9 7 15 7 2.</_></rects>
      <tilted>0</tilted></_>
    <_>
      <rects>
        <_>
          14 3 12 7 -1.</_>
        <_>
          18 3 4 7 2.</_></rects>
      <tilted>0</tilted></_>
    <_>
      <rects>
        <_>
          14 14 3 3 -1.</_>
        <_>
          15 14 1 3 2.</_></rects>
      <tilted>0</tilted></_>
    <_>
      <rects>
        <_>
          18 13 4 10 -1.</_>
        <_>
          20 13 2 10 2.</_></rects>
      <tilted>0</tilted></_></features></cascade>
</opencv_storage>
